{
    "code": "STATUS",
    "result": {
        "step": 11918200,
        "wins": 531158
    },
    "actor": {
        "x": 0,
        "y": 0,
        "step": 2
    },
    "target": {
        "x": 1,
        "y": 1
    },
    "params": {
        "numStates": 4,
        "numActions": 4,
        "maxX": 7,
        "maxY": 7,
        "target": {
            "x": 6,
            "y": 6
        }
    },
    "spec": { "alpha": 0.03, "epsilon": 0.4, "learning_steps_per_iteration": 40, "experience_size": 10000, "gamma": 0.75 },
    "brain": {
        "nh": 100,
        "ns": 4,
        "na": 4,
        "net": {
            "W1": {
                "n": 100,
                "d": 4,
                "w": {
                    "0": -0.03238120752012704,
                    "1": -0.027849269758390353,
                    "2": 0.14155569800257323,
                    "3": 0.18098914709992697,
                    "4": 0.10862541008672243,
                    "5": -0.0746083741117566,
                    "6": 0.0017289669945478436,
                    "7": -0.04303210791634647,
                    "8": 0.03581307055615651,
                    "9": 0.01802804347812893,
                    "10": 0.1131744130913018,
                    "11": 0.04368958845965319,
                    "12": 0.05542208174086627,
                    "13": 0.012408261789867965,
                    "14": -0.010749127583622512,
                    "15": -0.009592933805887492,
                    "16": 0.033470148174689206,
                    "17": 0.033847416573230135,
                    "18": -0.10194006845799465,
                    "19": -0.06814015338059513,
                    "20": 0.0399017439130636,
                    "21": 0.049356751899704863,
                    "22": -0.003535574773135019,
                    "23": 0.008329992757804177,
                    "24": -17.1705163958465,
                    "25": 0.29028582526627356,
                    "26": -0.02669314019290984,
                    "27": 0.03276365702151822,
                    "28": -0.05414485718350397,
                    "29": 0.05798016412284296,
                    "30": 0.01784479403656283,
                    "31": 0.0696523835808978,
                    "32": -0.08034025110580524,
                    "33": -0.030402046181721678,
                    "34": -0.00003485596926093259,
                    "35": -0.01659524576967235,
                    "36": -0.08991910477066863,
                    "37": 0.0012297413172224281,
                    "38": -0.006875057876326686,
                    "39": -0.018009099712597065,
                    "40": -0.040434848647194106,
                    "41": -0.0445204241191145,
                    "42": 0.04432276007278571,
                    "43": 0.00023108438526281603,
                    "44": -0.09008739090964911,
                    "45": -0.03019750449229663,
                    "46": -0.057492474432708385,
                    "47": -0.07770068105907926,
                    "48": -0.046362516255602455,
                    "49": -0.04689700773967252,
                    "50": 0.009998193216144214,
                    "51": -0.033196334830046914,
                    "52": 0.02879268429835382,
                    "53": 0.0400998922540629,
                    "54": -17.27262768387786,
                    "55": -2.7127794668460394,
                    "56": -0.02829246048000422,
                    "57": -0.0032855650341682384,
                    "58": -0.09305517610167809,
                    "59": -0.035948451612280614,
                    "60": -0.00696699024217467,
                    "61": 0.038853359223893914,
                    "62": 0.004533787873481046,
                    "63": 0.031197211759667533,
                    "64": 0.0380691862890771,
                    "65": 0.05258101100858905,
                    "66": -0.11199006490829841,
                    "67": -0.08741885024589496,
                    "68": -0.019838363589927816,
                    "69": 0.020489952243305437,
                    "70": 0.0003192730577959301,
                    "71": 0.007490274719113322,
                    "72": -0.08434185917199669,
                    "73": -0.016025885233617206,
                    "74": -0.004091712206210559,
                    "75": -0.009104484953159315,
                    "76": 0.03446090822252239,
                    "77": -0.048144234674243586,
                    "78": 0.0374470284745605,
                    "79": 0.04720657690372653,
                    "80": -0.05906394270562272,
                    "81": -0.019588363075311657,
                    "82": -0.029849850126856037,
                    "83": -0.038730916093018465,
                    "84": 0.015715024109512466,
                    "85": -0.029926935350512864,
                    "86": -0.007004976426240706,
                    "87": 0.0271062074240265,
                    "88": 0.6786007730831916,
                    "89": 0.545361970848196,
                    "90": 0.7498178651326852,
                    "91": 1.1555529819509534,
                    "92": 0.032106544911207055,
                    "93": 0.054381766922485794,
                    "94": -10.097997366186922,
                    "95": -1.7968051019470876,
                    "96": -0.08302747927523638,
                    "97": 0.011119903166733584,
                    "98": -0.01956088955797257,
                    "99": -0.033689857878748675,
                    "100": -0.057158365675706285,
                    "101": 0.11550272841654305,
                    "102": -0.04540247329702399,
                    "103": 0.02632259396654699,
                    "104": 0.04263741992163651,
                    "105": -0.0024550098895851106,
                    "106": 0.20343807672208997,
                    "107": 0.11901791626983517,
                    "108": -0.055877041944594585,
                    "109": -0.0003332066899276761,
                    "110": -0.05929383914889834,
                    "111": -0.07809487963570425,
                    "112": -0.04815193672446043,
                    "113": 0.0330239462841799,
                    "114": -0.02535807840010739,
                    "115": 0.002490006116721071,
                    "116": 0.03295242665311844,
                    "117": -0.046776057913823464,
                    "118": 0.014198432830493981,
                    "119": -0.02647973869868234,
                    "120": 0.08478073048056366,
                    "121": 0.028155837474424697,
                    "122": 0.08853353476469689,
                    "123": 0.04675924081016735,
                    "124": 0.0983211153504947,
                    "125": -0.13341756980476302,
                    "126": 0.019736489003929172,
                    "127": -0.0946713498302957,
                    "128": 0.02301945892721548,
                    "129": -0.0097355970929124,
                    "130": -0.015169599619683389,
                    "131": 0.008110004629159178,
                    "132": -0.01521458034248334,
                    "133": -0.01211486855342924,
                    "134": -0.12154827390758771,
                    "135": -0.031354851337879804,
                    "136": -0.015093089150534224,
                    "137": 0.04243587631272326,
                    "138": 0.01041831504818436,
                    "139": -0.01451138000698049,
                    "140": 0.08830323457522586,
                    "141": -0.02270302162005269,
                    "142": 0.030091000977142793,
                    "143": 0.0315429276815845,
                    "144": -0.05342459621252645,
                    "145": -0.07291817807788466,
                    "146": -0.05227199092867087,
                    "147": -0.00845129127615825,
                    "148": -0.10005060465092004,
                    "149": -0.03510003131641728,
                    "150": 5.386242570851771,
                    "151": 0.12728270592856963,
                    "152": 0.05394117987242753,
                    "153": 0.018361372271380075,
                    "154": 0.12529612658803696,
                    "155": 0.07444970936717302,
                    "156": 0.011837479497903671,
                    "157": -0.02296244411688983,
                    "158": -0.05075772082418811,
                    "159": -0.09072403487969968,
                    "160": -0.016469943046600058,
                    "161": -0.05188743166437772,
                    "162": -0.023213339361567137,
                    "163": -0.05363912151972532,
                    "164": 0.02695132598262463,
                    "165": -0.020691844539636232,
                    "166": 0.05514487369313623,
                    "167": -0.005147524794335476,
                    "168": 0.08393203047992898,
                    "169": 0.09714903330533842,
                    "170": -7.629028730603524,
                    "171": 0.9708468680293557,
                    "172": 0.0011202355117674802,
                    "173": 0.06676524257529565,
                    "174": 0.000023052884680388777,
                    "175": 0.034138040946783986,
                    "176": -0.022086727865672673,
                    "177": 0.0008506899788115596,
                    "178": 0.007310008708790269,
                    "179": 0.02432171736320586,
                    "180": -0.05204029973035039,
                    "181": -0.017670359769292925,
                    "182": -0.05114447601798001,
                    "183": -0.07923262861437792,
                    "221": -0.001702610909786884,
                    "222": -0.09823774429629673,
                    "223": -0.9629860148784899,
                    "224": 0.011119404905848753,
                    "225": 0.0038885541425953112,
                    "226": -0.054055649703194646,
                    "227": 0.023181579557041403,
                    "228": 0.0055429013842030585,
                    "229": 0.0005844620707581853,
                    "230": -0.02705250840438149,
                    "231": 0.008305114332147158,
                    "232": 0.0011577953701468087,
                    "233": 0.027737862629961692,
                    "234": -0.0009045286415882284,
                    "235": -0.01270035143489399,
                    "236": 0.015441171987049945,
                    "237": -0.5665314082754869,
                    "238": -0.03552392236932205,
                    "239": 0.02067792504473871,
                    "240": 0.01321622830197696,
                    "241": -0.010311202210367751,
                    "242": -0.47878401869321197,
                    "243": -0.006326095708341392,
                    "244": -0.0033385684241039504,
                    "245": 0.0221387425217791,
                    "246": 0.005962850970169822,
                    "247": -0.006073895324385432,
                    "248": 0.008579297220008105,
                    "249": 0.025852179343157578,
                    "250": 0.0017843242761049715,
                    "251": -0.007126321575395108,
                    "252": -0.43448707242623236,
                    "253": -0.010925146851374665,
                    "254": 0.11692901111409561,
                    "255": -0.008471299218780615,
                    "256": -0.010146808784924004,
                    "257": 0.018118593174053007,
                    "258": 0.005381243034659185,
                    "259": 0.0015347896412007372,
                    "260": 0.0022893659450227144,
                    "261": -0.42578079983530626,
                    "262": -0.004159084474017127,
                    "263": 0.0053211382644252955,
                    "264": -0.006159881852728039,
                    "265": -0.07334819880134663,
                    "266": -0.015230037374983758,
                    "267": -0.01501018260358096,
                    "268": -0.01957027917629183,
                    "269": -0.009065524451112921,
                    "270": -0.017075973036009433,
                    "271": -0.002852978192255977,
                    "272": 0.0059062707818607575,
                    "273": 0.14043794967646334,
                    "274": 0.03218309262857074,
                    "275": 0.00013070782732645114,
                    "276": 0.18224059812126292,
                    "277": -0.001109283241759753,
                    "278": -0.004684760840251981,
                    "279": 0.30414255584903394,
                    "280": -3.380470774729805,
                    "281": 0.006041927101065337,
                    "282": -0.016610969893464087,
                    "283": -0.019919785649464783,
                    "284": 0.008445851651666576,
                    "285": 0.027470781750382155,
                    "286": -0.009068923175661095,
                    "287": -0.017417581122171313,
                    "288": -0.006423773337442341,
                    "289": 0.02530841295233259,
                    "290": 0.02464622564620127,
                    "291": 0.006796039928842269,
                    "292": -0.008151458674174513,
                    "293": -0.003703249162213499,
                    "294": -0.02686721841752129,
                    "295": 0.12830094840353257,
                    "296": 0.2989244150555027,
                    "297": -0.013224232122296597,
                    "298": -0.0030093018083771923,
                    "299": 0.00023430768162983467,
                    "300": -0.07375408462358483,
                    "301": -0.021014223395378076,
                    "302": -0.01687897635251949,
                    "303": 0.021036138036122393,
                    "304": 0.059008949796050425,
                    "305": 0.03675557486854724,
                    "306": -1.2624014968789112,
                    "307": 0.012885673449938056,
                    "308": -0.03056549330239891,
                    "309": -0.011201037232453815,
                    "310": -0.04534690637326955,
                    "311": -0.010616562692804879,
                    "312": -0.03547423767758298,
                    "313": 0.19430689293333786,
                    "314": 0.02094060345868635,
                    "315": 0.0177064946608975,
                    "316": 0.0747213624967096,
                    "317": 0.00797524490441528,
                    "318": -0.022359638353990248,
                    "319": -0.03749792413096552,
                    "320": -0.010254061135817257,
                    "321": -0.01621313872149467,
                    "322": -0.22253561768705368,
                    "323": 0.03414183744410931,
                    "324": 0.0009808866731070612,
                    "325": 0.06875216851200938,
                    "326": -0.056017831945996695,
                    "327": 0.01342900558408544,
                    "328": 0.017810724909809218,
                    "329": -0.023277213223277977,
                    "330": 0.003608572236192772,
                    "331": -0.05691721684338491,
                    "332": 0.0013009463203901186,
                    "333": 0.025049757644421376,
                    "334": 0.02164958522924062,
                    "335": -0.009638071162299323,
                    "336": -0.03876858766849465,
                    "337": -0.1817935331033161,
                    "338": -0.019580808366322068,
                    "339": 0.010898746758647243,
                    "340": -0.02247337012630049,
                    "341": -0.021558603738379468,
                    "342": 0.019177058706616405,
                    "343": 0.036800038784048965,
                    "344": -0.007824181654293041,
                    "345": 0.0016956373202833403,
                    "346": -0.019929335789817842,
                    "347": -0.020813951036140994,
                    "348": 0.01435845160092929,
                    "349": 0.011547068866218903,
                    "350": -0.0496977934088313,
                    "351": 0.08904443755114637,
                    "352": -0.23463909095135274,
                    "353": -0.03013992560449601,
                    "354": 0.6014135545704331,
                    "355": -0.031653005084287415,
                    "356": -0.03555968423466496,
                    "357": 0.07385593193077329,
                    "358": -0.012901764034418107,
                    "359": -0.03894488909485478,
                    "360": -0.025508953799029534,
                    "361": -0.11913787379287198,
                    "362": -0.04843655200376972,
                    "363": 0.04198916182725926,
                    "364": -0.0035141753835721797,
                    "365": -0.0023408614172707666,
                    "366": -0.021353415175797755,
                    "367": -0.05444900292534917,
                    "368": 0.02194494439122085,
                    "369": 0.01765186841505841,
                    "370": -0.013264733079161001,
                    "371": -0.010138087875317456,
                    "372": 0.06941177025967374,
                    "373": -0.027902348878711687,
                    "374": 0.03573566109992164,
                    "375": -0.03003629502640562,
                    "376": 0.2730002581659909,
                    "377": 0.04879337880771368,
                    "378": -0.009990440711946484,
                    "379": -0.1308258454317958,
                    "380": 0.018389574097439264,
                    "381": 0.03096865655470539,
                    "382": -0.050026553716756114,
                    "383": -0.041443052987010356,
                    "384": -0.03763238369083953,
                    "385": 0.01647772026729954,
                    "386": -0.057534830998587014,
                    "387": 0.02165504023391587,
                    "388": 0.03489440423099507,
                    "389": -0.09002265775042392,
                    "390": -0.067651877654175,
                    "391": -0.03503644564156231,
                    "392": 0.02547251014783958,
                    "393": 0.01959109842427557,
                    "394": -0.04257880336924826,
                    "395": -0.1460759917291696,
                    "396": 0.3475026901311487,
                    "397": -0.012949211418082467,
                    "398": -0.0025151591227977753,
                    "399": -0.031844331277478884
                }
            },
            "b2": {
                "n": 4,
                "d": 1,
                "w": {
                    "0": -3.2289493068910793,
                    "1": -1.1684318554493327,
                    "2": -3.2854190266036616,
                    "3": -1.202617106469471
                }
            }
        }
    }
}
