{
  "arena": "SNAKE",
  "spec": {
    "alpha": 0.02289427583079153,
    "epsilon": 0.03557041608494215,
    "learning_steps_per_iteration": 40,
    "experience_size": 10000,
    "gamma": 0.644227366099615
  },
  "name": "snake-8x8",
  "result": {
    "step": 12629938,
    "wins": 1983950
  },
  "params": {
    "numStates": 6,
    "numActions": 4,
    "maxX": 7,
    "maxY": 7
  },
  "brain": {
    "nh": 100,
    "ns": 4,
    "na": 4,
    "net": {
      "W1": {
        "n": 100,
        "d": 4,
        "w": {
          "0": 0.04151881508726793,
          "1": -0.1087053750055454,
          "2": -0.032416546058361806,
          "3": 0.06493149041153032,
          "4": -0.05119993955612724,
          "5": 0.08537472103622006,
          "6": 0.008591719202768562,
          "7": -0.020430198429402385,
          "8": -0.05080503984976079,
          "9": 0.015257619227822957,
          "10": -0.03573148358138739,
          "11": 0.06357675160160603,
          "12": 0.051667895910182816,
          "13": -0.04588121493101969,
          "14": 0.01679835396660834,
          "15": -0.027678635725526514,
          "16": 0.9688990309093193,
          "17": -3.3142782437479594,
          "18": -0.02601302877490667,
          "19": -0.17593503821380616,
          "20": 0.03742258877153068,
          "21": -0.11039153293868233,
          "22": -0.037401762652112584,
          "23": 0.0740473324584014,
          "24": -0.05172422267073432,
          "25": 0.0654327023735712,
          "26": -0.004457427485368763,
          "27": 0.004311807792351981,
          "28": 0.05095080420744014,
          "29": -0.08787072809784208,
          "30": -0.010392366670814085,
          "31": 0.023835470005828675,
          "32": -0.020941618920854266,
          "33": -0.002905555588846087,
          "34": -0.020787828360910383,
          "35": 0.03759003736004411,
          "36": 0.051651326653103354,
          "37": -0.05697916377272118,
          "38": 0.009738006974012272,
          "39": -0.014321969191034066,
          "40": 1.5113414077702245,
          "41": 18.579441896509483,
          "42": 0.687207203691454,
          "43": 0.6514354950049733,
          "44": -0.050962620695565494,
          "45": 0.08776614214766601,
          "46": 0.010315634857297765,
          "47": -0.02369044157554379,
          "48": -0.05172163880212706,
          "49": 0.07294400116412049,
          "50": 0.0002844281940885289,
          "51": -0.0046843696488463645,
          "52": -0.0017009686328863848,
          "53": -0.0005120591138537005,
          "54": -0.0018678373108454286,
          "55": 0.003387322268149391,
          "56": -0.051737037030576694,
          "57": 0.0705028889856646,
          "58": -0.0012689156794478398,
          "59": -0.0017371961218766072,
          "60": -0.051729327185682544,
          "61": 0.06626428348518945,
          "62": -0.003936888772651978,
          "63": 0.003324422177388437,
          "64": -0.05229695870637627,
          "65": 0.029636326073720767,
          "66": -0.027750790250356504,
          "67": 0.048339726029928066,
          "68": -0.04794858316473587,
          "69": 0.010740048462997871,
          "70": -0.03613071015924221,
          "71": 0.06456130671445684,
          "72": -0.026070393669653084,
          "73": -0.001972874363416809,
          "74": -0.024803449605737146,
          "75": 0.04478940760683966,
          "76": -0.051629528117600444,
          "77": 0.052824130255188444,
          "78": -0.01235222998994327,
          "79": 0.019271695118292794,
          "80": 0.05170038882377879,
          "81": -0.044031118075638344,
          "82": 0.018005598752528974,
          "83": -0.029958830961949953,
          "84": 0.04282428858914835,
          "85": -0.10779760271266675,
          "86": -0.03059853682313901,
          "87": 0.06158944791929962,
          "88": 0.05200320060662863,
          "89": -0.03537610000215228,
          "90": 0.023804544076361987,
          "91": -0.04089904826730911,
          "92": -0.05173181170223956,
          "93": 0.0667398490171623,
          "94": -0.0036388650285661124,
          "95": 0.0027590833038964573,
          "96": 0.5286820745409272,
          "97": -0.6290620687005785,
          "98": -0.29102146624197983,
          "99": -1.4892807868656663,
          "100": -0.050313650443688705,
          "101": 0.09229216034522382,
          "102": 0.013765061581503708,
          "103": -0.030201291159957434,
          "104": 11.232477457860474,
          "105": -3.411915850391615,
          "106": -0.2892760137320215,
          "107": 0.11524027093846863,
          "108": 2.6187929446541847,
          "109": 2.6365025647659177,
          "110": -0.07134365911004514,
          "111": -0.35079913485327785,
          "112": -0.012873975881170336,
          "113": -0.0029573437525520913,
          "114": -0.013541818449366335,
          "115": 0.02452936860812126,
          "116": -0.051695897653201484,
          "117": 0.0442560477157275,
          "118": -0.017858280186329338,
          "119": 0.029680634085646234,
          "120": 0.04851459723776486,
          "121": -0.011445660364099964,
          "122": 0.03617516464004581,
          "123": -0.06460085733780002,
          "124": -0.036255009678859376,
          "125": 0.11222308487510739,
          "126": 0.0397135196821701,
          "127": -0.07837312736796732,
          "128": 0.051024985762941844,
          "129": -0.08719563469237028,
          "130": -0.009899023551782841,
          "131": 0.02290289761916913,
          "132": 0.02868306876296404,
          "133": 0.001237463233733843,
          "134": 0.02667688185955444,
          "135": -0.048134345110132815,
          "136": 4.596814423933179,
          "137": -1.493571859412346,
          "138": 0.09610282140723883,
          "139": 0.5536658386840154,
          "140": 7.75780068186751,
          "141": 8.430153370240108,
          "142": -0.12255492427399534,
          "143": -0.41846021246656295,
          "144": -0.0344491722425712,
          "145": 0.11091416233758022,
          "146": 0.04058801778420053,
          "147": -0.07984343742423645,
          "148": 0.056714681912600956,
          "149": -0.08412511506299235,
          "150": -0.0028047160542708865,
          "151": 0.010030994128296425,
          "152": -0.05148316082167113,
          "153": 0.08124382231826546,
          "154": 0.005731089557120512,
          "155": -0.015013187440648484,
          "156": 0.05168487967386025,
          "157": -0.060780360897646726,
          "158": 0.007362346643853768,
          "159": -0.009820215757751601,
          "160": -2.200557037216788,
          "161": -0.11862929146554166,
          "162": 0.44543658932932395,
          "163": -0.37124430908101175,
          "164": -0.3084201126225146,
          "165": -1.0512766016120902,
          "166": -0.6758472193660615,
          "167": -0.8117215575284836,
          "168": -0.051741284126677174,
          "169": 0.04228456261389763,
          "170": -0.019155489907147865,
          "171": 0.03212974306343324,
          "172": -0.051666667731285934,
          "173": 0.07627625937106902,
          "174": 0.0024345987658363176,
          "175": -0.008763309075228857,
          "176": -0.051682385551716184,
          "177": 0.06051428379045194,
          "178": -0.007528400736620035,
          "179": 0.010134980528414066,
          "180": -0.05151881980123857,
          "181": 0.08052649970614145,
          "182": 0.0052467584825785524,
          "183": -0.014095336957818371,
          "184": 0.03641154627593047,
          "185": -0.001963661851546215,
          "186": 0.03153574150358829,
          "187": -0.05674447338819055,
          "188": -0.05179687307302689,
          "189": 0.04040603626346158,
          "190": -0.020403855566586887,
          "191": 0.03448558221992216,
          "192": 0.043199847504217216,
          "193": -0.006255314918040859,
          "194": 0.034816385366717266,
          "195": -0.06244012511354463,
          "196": -2.229339716555303,
          "197": 2.006764204816714,
          "198": 0.04502874499444863,
          "199": -0.021605782285130708,
          "200": 0.041281322873008404,
          "201": -0.11214041318674194,
          "202": -0.03486008760859712,
          "203": 0.06961861938630326,
          "204": 0.051649442921189066,
          "205": -0.07695864563833343,
          "206": -0.0028802250536234795,
          "207": 0.00960849750883151,
          "208": -0.04342195916575932,
          "209": 0.11161497932381852,
          "210": 0.03248878813089613,
          "211": -0.06531103690073727,
          "212": 0.34610557821928434,
          "213": 0.6003787007344419,
          "214": -0.9619156789173157,
          "215": -0.3925698567502409,
          "216": -0.040981498806545835,
          "217": 0.004661105463024269,
          "218": -0.033871887694240925,
          "219": 0.060820950729387695,
          "220": 0.05185438103214705,
          "221": -0.018444240190089785,
          "222": 0.03459285010812481,
          "223": -0.06133320286796051,
          "224": 0.051641494695470656,
          "225": -0.04821307972957224,
          "226": 0.015291343158304377,
          "227": -0.02483075816327121,
          "228": -14.109995190435034,
          "229": -4.165732376367769,
          "230": 0.7398579139038434,
          "231": -0.14056093961194954,
          "232": 0.013481014383310586,
          "233": 0.00301369315971453,
          "234": 0.014126383848938532,
          "235": -0.02558548161263208,
          "236": 0.034132004029277324,
          "237": -0.11095299707824369,
          "238": -0.04091779744619576,
          "239": 0.08044285969188143,
          "240": -0.05221914492799121,
          "241": 0.031173807668216015,
          "242": -0.026692946159830342,
          "243": 0.04634462767623379,
          "244": -0.05147154015834832,
          "245": 0.01702554286195988,
          "246": -0.03517432362994883,
          "247": 0.06246656940859847,
          "248": 0.05174462597478517,
          "249": -0.0421628314170072,
          "250": 0.019236113805622283,
          "251": -0.032281912263955916,
          "252": 0.04899915404524123,
          "253": -0.09780790004833166,
          "254": -0.01846290879661281,
          "255": 0.039033368410465556,
          "256": 0.05163362979739665,
          "257": -0.05408510643029252,
          "258": 0.011556128768920133,
          "259": -0.017764861869848096,
          "260": 0.05120774639915669,
          "261": -0.01625275302455803,
          "262": 0.0354422498777376,
          "263": -0.06299587369921403,
          "264": -7.525466155366427,
          "265": 8.690713318819455,
          "266": 0.6068879238273542,
          "267": 0.04690092518705309,
          "268": -0.04349272158564727,
          "269": 0.11159158081614522,
          "270": 0.03240668503691143,
          "271": -0.06516156268721679,
          "272": 0.036257162363696735,
          "273": -0.110644088399434,
          "274": -0.03867974113679727,
          "275": 0.07637404852635393,
          "276": -0.3302712243837557,
          "277": 4.664199491317734,
          "278": 0.26151397258774006,
          "279": -0.10308634789030714,
          "280": -0.03365777884317287,
          "281": 0.0006428599266263231,
          "282": -0.029924694746345105,
          "283": 0.05390322987956748,
          "284": 3.2007536172838886,
          "285": 19.81002553471616,
          "286": -0.07936192560210133,
          "287": 0.4713027224654388,
          "288": -0.05130329358545516,
          "289": 0.08409346653068692,
          "290": 0.007690164441569951,
          "291": -0.018723822940406608,
          "292": 1.9043872649666462,
          "293": 2.7482757480820745,
          "294": 0.3364746732440289,
          "295": -0.3815055290778878,
          "296": -0.05006053486917262,
          "297": 0.09361735837742556,
          "298": 0.01483437927425893,
          "299": -0.03221555892875298,
          "300": 0.05197471221868332,
          "301": -0.0359751368107141,
          "302": 0.023395499614581546,
          "303": -0.04012784550133555,
          "304": -0.051709886746298867,
          "305": 0.06355760884545898,
          "306": -0.00562908670975084,
          "307": 0.006533964928912999,
          "308": 0.0328098962224339,
          "309": -0.11125195252258777,
          "310": -0.04238465057776702,
          "311": 0.08312137579351717,
          "312": -0.04420717072920392,
          "313": 0.00706011889177189,
          "314": -0.035191672126017766,
          "315": 0.06307351540087423,
          "316": 0.05172023988738264,
          "317": -0.06486857038061834,
          "318": 0.004810155604722305,
          "319": -0.004980840301380354,
          "320": 0.05048405301782979,
          "321": -0.0912899394412895,
          "322": -0.012976175430546895,
          "323": 0.028713948762396656,
          "324": -10.530332868681636,
          "325": 3.47399187053618,
          "326": 1.4583189778837802,
          "327": 0.6975415020098218,
          "328": -0.0411049553659122,
          "329": 0.1089483731834015,
          "330": 0.03296517120213751,
          "331": -0.06593811939458155,
          "332": -0.047200979974655714,
          "333": 0.009886672767531753,
          "334": -0.03602056770233149,
          "335": 0.06441133835720247,
          "336": -0.05182964687738608,
          "337": 0.03945795259130202,
          "338": -0.021038613934777413,
          "339": 0.03568309147807457,
          "340": -0.02906148030660509,
          "341": -0.0011165536583061131,
          "342": -0.0269386657467822,
          "343": 0.04860087645294509,
          "344": 1.9954312924681328,
          "345": -9.72742354076422,
          "346": -0.10336334044955263,
          "347": 0.44449600718429744,
          "348": -0.0382396238956597,
          "349": 0.11235844551547096,
          "350": 0.03790209949539533,
          "351": -0.07511595874000113,
          "352": 0.036457823290047264,
          "353": -0.11224639806634333,
          "354": -0.03953437852026021,
          "355": 0.07805162379315282,
          "356": 0.05125485198791097,
          "357": -0.08471747891768515,
          "358": -0.008127498174372565,
          "359": 0.01955167245801292,
          "360": -0.049021508001141335,
          "361": 0.09773491112724797,
          "362": 0.018396027996159435,
          "363": -0.038907943337321116,
          "364": 0.0521196171718401,
          "365": -0.019837117536640043,
          "366": 0.03392446775968308,
          "367": -0.060044770908842963,
          "368": -0.05169241154304868,
          "369": 0.061590214186259526,
          "370": -0.006856972419752225,
          "371": 0.008862170363503898,
          "372": 0.7572429852857182,
          "373": -0.2985441697476438,
          "374": 0.35138045978637145,
          "375": -0.5383684795769058,
          "376": -0.008307203839822084,
          "377": -0.0022428457629065815,
          "378": -0.008955143395619536,
          "379": 0.016232149267803305,
          "380": -0.010328751074391275,
          "381": -0.002619632444622972,
          "382": -0.01102481177223892,
          "383": 0.019978251950412557,
          "384": -0.003087741713322148,
          "385": -0.0009194234387114861,
          "386": -0.003384114611264898,
          "387": 0.006136778589814805,
          "388": -0.052081378036077264,
          "389": 0.0338091674618577,
          "390": -0.024878514148537173,
          "391": 0.04292376400561413,
          "392": 0.051709490592703106,
          "393": -0.0739612583362936,
          "394": -0.0009367273352919862,
          "395": 0.005921912100620868,
          "396": -0.05173658789268779,
          "397": 0.042468313485380924,
          "398": -0.019034109885125453,
          "399": 0.03190062091155084
        }
      },
      "b1": {
        "n": 100,
        "d": 1,
        "w": {
          "0": -0.011319520327233067,
          "1": 0.0077368672550734595,
          "2": -0.0009990088231838878,
          "3": -0.0027030476159058767,
          "4": -0.7676492289656122,
          "5": -0.011765570698975153,
          "6": 0.005159778999405161,
          "7": -0.008072803289821963,
          "8": -0.0015601998591304486,
          "9": -0.004095706307768267,
          "10": -1.4032176841463744,
          "11": 0.00805863462121995,
          "12": 0.006114727731726844,
          "13": -0.00016251531837032756,
          "14": 0.005802959418178022,
          "15": 0.005264932643965306,
          "16": 0.0006581284297404969,
          "17": -0.0013845667255559342,
          "18": -0.0017306903519135315,
          "19": 0.00357440670768445,
          "20": -0.002470499214672453,
          "21": -0.011127645421413411,
          "22": -0.0013800238003657418,
          "23": 0.005325122009681511,
          "24": -0.19456697217699348,
          "25": 0.008680804043453753,
          "26": 0.14073941715323224,
          "27": 0.7003594898092191,
          "28": -0.0011107116461889163,
          "29": 0.002498780429153395,
          "30": 0.001330760021609611,
          "31": 0.012059792644071308,
          "32": -0.007981485738639658,
          "33": 0.0017846162450666854,
          "34": -0.8587254865824607,
          "35": 0.14303150478955595,
          "36": 0.011993243471449429,
          "37": -0.007217216954504714,
          "38": 0.007189761638665937,
          "39": -0.004573297635638171,
          "40": 0.8810147357300657,
          "41": 0.4739396720778803,
          "42": 0.0022507684299559196,
          "43": 0.006543181023684152,
          "44": 0.0045398308261174625,
          "45": 0.007095715387594541,
          "46": 0.001816787408305242,
          "47": 0.0020142146295390917,
          "48": 0.0016659306644704343,
          "49": -0.29812597125606743,
          "50": -0.011768752205012526,
          "51": -0.006631396926333022,
          "52": 0.011577969126265233,
          "53": -0.05314872446426659,
          "54": -0.0017380867115945533,
          "55": 0.000674288051257388,
          "56": -0.0029958901189673787,
          "57": -0.24248085631176375,
          "58": 0.001152305030685032,
          "59": -0.012015042816826452,
          "60": 0.0008508579772814014,
          "61": -0.0008235747810781849,
          "62": -0.0022354396692430456,
          "63": -0.009472148450985424,
          "64": -0.003732574406065094,
          "65": 0.0009017879836534719,
          "66": -0.18197834310749045,
          "67": 0.01157084418018465,
          "68": -0.011861538580914582,
          "69": -0.08261917908509067,
          "70": -0.0018274609968736315,
          "71": 0.2980046743235312,
          "72": 0.007566092512205117,
          "73": -0.2877974996048906,
          "74": 0.008867027216285617,
          "75": -0.0014555715823174168,
          "76": 0.004923072006316978,
          "77": -0.012122220461912636,
          "78": -0.0016235828365300249,
          "79": -0.005088511192995037,
          "80": -0.008541304367143461,
          "81": -1.7205298691675892,
          "82": 0.011374370750211152,
          "83": -0.0014463064971667015,
          "84": 0.0018947400902921303,
          "85": -0.0017906218919344211,
          "86": -0.19885962026623194,
          "87": 0.011967861154800207,
          "88": -0.012051691946557367,
          "89": -0.007649134789132362,
          "90": 0.00946137241996841,
          "91": 0.0005213921363289646,
          "92": 0.0046752044513987305,
          "93": -0.02776042490897529,
          "94": -0.0007601524255775,
          "95": -0.0009231791611836748,
          "96": -0.0002936964203583586,
          "97": 0.001182482623947494,
          "98": -0.006245144290827343,
          "99": 0.0022738896225807242
        }
      },
      "W2": {
        "n": 4,
        "d": 100,
        "w": {
          "0": 0.006061592638499027,
          "1": 0.018158832142684222,
          "2": 0.05460534390697046,
          "3": -0.039255202146216965,
          "4": -0.2071195382042825,
          "5": 0.01219232729102833,
          "6": 0.029102125758866924,
          "7": -0.016567278543963494,
          "8": 0.027612690490428332,
          "9": -0.03341383499261491,
          "10": 0.3022801468446487,
          "11": 0.016635671463187802,
          "12": 0.025208710435822505,
          "13": 0.002392012435731382,
          "14": 0.02649003785173252,
          "15": 0.028676822393248827,
          "16": 0.048654159152327056,
          "17": 0.05356911502784252,
          "18": 0.03347660297157973,
          "19": 0.035560389487088374,
          "20": -0.0402707287967932,
          "21": 0.0039250406454648615,
          "22": -0.04522894200470527,
          "23": 0.028433169873174586,
          "24": 0.004405411254218023,
          "25": 0.013504458437387155,
          "26": -0.26591015807536295,
          "27": 0.2690404136472367,
          "28": 0.017609969774533458,
          "29": 0.04014651480763473,
          "30": -0.0538782621438358,
          "31": -0.014666908270639701,
          "32": -0.0170061537757918,
          "33": -0.036318636283751635,
          "34": -0.22180374464316494,
          "35": 0.15645061931134616,
          "36": -0.01630080516400541,
          "37": -0.025587728534852954,
          "38": 0.020634145375231457,
          "39": -0.03147272976509654,
          "40": -0.05886070411641349,
          "41": 0.1628719476248866,
          "42": 0.041243442960800104,
          "43": 0.023420457403324265,
          "44": 0.031608246879512296,
          "45": 0.02104750379367786,
          "46": -0.04414628965289189,
          "47": 0.04230555058211739,
          "48": -0.050180626708244136,
          "49": -0.6118304677063255,
          "50": 0.008164725657187392,
          "51": -0.02304724435292771,
          "52": -0.005155278805439359,
          "53": 0.48999299837552807,
          "54": 0.048317398294918025,
          "55": -0.054154839478584675,
          "56": -0.037995315703449016,
          "57": -0.11489903639950508,
          "58": -0.018395451425150977,
          "59": 0.016731294475939136,
          "60": 0.04773571807452911,
          "61": 0.05445814480154714,
          "62": -0.04131189608951502,
          "63": -0.009030001534386024,
          "64": -0.034905124669411786,
          "65": -0.05455609235483121,
          "66": 0.176434206360857,
          "67": -0.005052856453636982,
          "68": 0.01382539852539365,
          "69": -0.7652272402098913,
          "70": 0.041459462071908794,
          "71": 0.04348413265140708,
          "72": 0.018945562867310462,
          "73": -0.540163752200178,
          "74": 0.012508614507053291,
          "75": -0.044875259822826724,
          "76": 0.0300585231752803,
          "77": 0.01860177351746476,
          "78": 0.05098111553549689,
          "79": -0.029390140613496974,
          "80": -0.01423118995707552,
          "81": -0.18616325208502169,
          "82": -0.006716773428583562,
          "83": 0.05311745502203068,
          "84": 0.04284805112891772,
          "85": 0.0367221835460903,
          "86": -0.3653527233337777,
          "87": -0.012182287460235731,
          "88": 0.0144177117879094,
          "89": -0.01856472779605092,
          "90": 0.00909549776172118,
          "91": -0.05372270686174351,
          "92": 0.031060347635553927,
          "93": -0.4023683420469849,
          "94": 0.01154350409403293,
          "95": 0.014261608069104724,
          "96": 0.0043367554320695575,
          "97": 0.04615954735485275,
          "98": -0.024668199006264938,
          "99": 0.04114055323983877,
          "100": -0.09346096638650975,
          "101": 0.03879759462499716,
          "102": -0.06905833405302912,
          "103": 0.022873509743081024,
          "104": -0.40666046821687674,
          "105": -0.10409600507642132,
          "106": 0.0071447516849380225,
          "107": -0.04310897195610075,
          "108": -0.04309583337459141,
          "109": 0.005730427367688505,
          "110": -0.05003302480141633,
          "111": 0.04292566390603389,
          "112": 0.018700838126412753,
          "113": -0.003931696417540313,
          "114": 0.01491855754541649,
          "115": 0.008414385301213988,
          "116": -0.04920782522052721,
          "117": -0.0710094733738486,
          "118": -0.05106212891476858,
          "119": -0.012091635038156183,
          "120": 0.025791380466154385,
          "121": -0.08950879911395929,
          "122": 0.039747087882483816,
          "123": 0.00914122873294565,
          "124": 0.1526129306319851,
          "125": 0.051124423966422174,
          "126": 0.25815459220684656,
          "127": 0.4593601879740601,
          "128": -0.028326913144602124,
          "129": -0.025435540119728213,
          "130": 0.07092247919260687,
          "131": 0.10932501249716454,
          "132": -0.04192978454356747,
          "133": 0.05470507294682374,
          "134": -0.2968527415944256,
          "135": -0.2000570879819948,
          "136": 0.1107559272178057,
          "137": -0.026777693263512686,
          "138": 0.03191014068195481,
          "139": -0.000059520541848645975,
          "140": 0.12715490464769047,
          "141": 0.5244267433870419,
          "142": -0.02856647729691569,
          "143": 0.023927202973531955,
          "144": -0.0003453793297068062,
          "145": 0.030739988942913174,
          "146": 0.06383100330192215,
          "147": -0.03157464163552943,
          "148": 0.0694551151216139,
          "149": -0.09314320817307171,
          "150": -0.09938856835263116,
          "151": -0.02500868180177323,
          "152": 0.09441032443720616,
          "153": -0.04763820528848168,
          "154": -0.06792676296988436,
          "155": 0.06593721642913779,
          "156": 0.019225045148851837,
          "157": 0.1471861722092385,
          "158": 0.029532849921495064,
          "159": -0.1114417526370837,
          "160": -0.046671708666560306,
          "161": -0.06747831223322304,
          "162": 0.028760861612610045,
          "163": -0.06213347567545539,
          "164": 0.010155883880188071,
          "165": 0.06821855887615572,
          "166": -0.08858893410164331,
          "167": 0.09423663321522797,
          "168": -0.10677755238359417,
          "169": 0.5160814623342418,
          "170": -0.060870175838620734,
          "171": -0.20549659275574542,
          "172": 0.03663164714175514,
          "173": 0.0007297238192830093,
          "174": 0.05364732450315814,
          "175": 0.03876555883932785,
          "176": 0.004286760130399322,
          "177": -0.11452837135217095,
          "178": -0.07001901728822894,
          "179": -0.00628435619202721,
          "180": -0.04925722549581968,
          "181": 0.055954036297733295,
          "182": 0.0946458017911802,
          "183": -0.0709996184763571,
          "184": -0.03310238603909146,
          "185": -0.05520963408792786,
          "186": 0.37483300916890133,
          "187": 0.10565874270209039,
          "188": -0.10896496653572271,
          "189": -0.03768289505042471,
          "190": 0.06197809984298344,
          "191": 0.06422616198306962,
          "192": 0.001291916602365562,
          "193": 0.40541192929507813,
          "194": -0.0188002080864525,
          "195": -0.02311185919715929,
          "196": -0.007121425167683846,
          "197": -0.04232276332003628,
          "198": -0.020287640726660432,
          "199": -0.028273705237621467,
          "200": 0.027002144855045842,
          "201": -0.02899191912689011,
          "202": -0.022867066892895537,
          "203": 0.025809185779595286,
          "204": -0.3276436949506055,
          "205": 0.025450375409431705,
          "206": -0.027494716078276353,
          "207": 0.02910418181891788,
          "208": -0.008562933739865546,
          "209": 0.02674277637770351,
          "210": -0.32485753588420935,
          "211": -0.02910004472159855,
          "212": -0.028137741726951458,
          "213": -0.0006697735818162902,
          "214": -0.02793454680383172,
          "215": -0.027568022736838133,
          "216": -0.024713224438917932,
          "217": -0.021254890923728245,
          "218": -0.010815650667783443,
          "219": -0.026380554601590226,
          "220": 0.025666868462573003,
          "221": 0.027464241847821032,
          "222": 0.025068124179668045,
          "223": -0.027609779121538447,
          "224": -0.13369239923119183,
          "225": -0.029222355562882652,
          "226": 1.10993313270353,
          "227": 0.18050833850996956,
          "228": -0.005154401885721585,
          "229": -0.02568393010459002,
          "230": 0.021558416732291585,
          "231": -0.02513193914783256,
          "232": 0.029076616969356484,
          "233": 0.011988363573856202,
          "234": -0.7562573999916193,
          "235": 0.11365994721159417,
          "236": -0.024262129364966745,
          "237": 0.031216640437506826,
          "238": -0.028753040281075008,
          "239": 0.027080739350610894,
          "240": 0.16622475052858582,
          "241": -0.2949268287838574,
          "242": -0.02553705511971425,
          "243": -0.028401394687302104,
          "244": -0.02705699555309861,
          "245": -0.02870600886037428,
          "246": 0.01555677050029828,
          "247": -0.025402584187417778,
          "248": 0.018831550236456076,
          "249": -0.389763794051422,
          "250": 0.02721409220997105,
          "251": 0.028452959810305812,
          "252": -0.02805756547996431,
          "253": -0.04354029217663698,
          "254": -0.017743680491075015,
          "255": 0.023586837613801318,
          "256": 0.02599503865909429,
          "257": -0.21064930506370616,
          "258": 0.0054051854808352265,
          "259": 0.024133894795066373,
          "260": -0.02480848803470399,
          "261": -0.023302891179329745,
          "262": 0.02552822394952526,
          "263": 0.029155310317654178,
          "264": 0.026489316843607818,
          "265": 0.02312430533413082,
          "266": -0.09462695605809819,
          "267": -0.02808492102421937,
          "268": 0.024988862315504925,
          "269": 0.3383562286503611,
          "270": -0.014267876602106122,
          "271": 0.3831641193964882,
          "272": -0.028924199016169886,
          "273": -0.7875245995011364,
          "274": -0.02923213927009916,
          "275": 0.025106201967238034,
          "276": -0.02732836620462239,
          "277": 0.023611979672844556,
          "278": -0.01933281231906267,
          "279": 0.027444787970711856,
          "280": 0.02920628090587057,
          "281": 0.7470261488298925,
          "282": -0.026851738200629072,
          "283": -0.02086066442111307,
          "284": -0.025336811890112693,
          "285": -0.0121596117659266,
          "286": 0.2960113565738136,
          "287": -0.025969026574350487,
          "288": 0.0252183354056712,
          "289": 0.028957959967313745,
          "290": -0.029158244569279325,
          "291": 0.023817735830376097,
          "292": -0.027153006176712235,
          "293": 0.4991818406003168,
          "294": -0.003294907798341063,
          "295": -0.00411239516976321,
          "296": -0.001216763165143428,
          "297": -0.024970189382974992,
          "298": 0.028220106922355034,
          "299": -0.02555053631037511,
          "300": 0.043344664713886344,
          "301": -0.03624101174577455,
          "302": -0.011559947892871585,
          "303": 0.022359427949380752,
          "304": -0.23864937800844205,
          "305": 0.0434360712202599,
          "306": -0.029251763338805293,
          "307": 0.03709553970788008,
          "308": -0.001522854710819038,
          "309": 0.02626187355641117,
          "310": -0.393864893272962,
          "311": -0.03705989214322536,
          "312": -0.03190464208394175,
          "313": -0.000025177912982206085,
          "314": -0.03104380266039843,
          "315": -0.029545920025898446,
          "316": -0.016746605921749785,
          "317": -0.009635639710817287,
          "318": -0.002481455828050447,
          "319": -0.024796095490234434,
          "320": 0.02171366155541988,
          "321": 0.043182587184905946,
          "322": 0.018716648315364647,
          "323": -0.029714112575445473,
          "324": -0.20923254353971898,
          "325": -0.038586577625146536,
          "326": -1.4121885627409339,
          "327": 0.3875084231167352,
          "328": -0.0005184242502388661,
          "329": -0.021792085810740828,
          "330": 0.009951319561806615,
          "331": -0.043934627729229785,
          "332": 0.03686519671252623,
          "333": 0.003062028971336351,
          "334": 1.1582015664486847,
          "335": -0.210263657851607,
          "336": -0.04324895124822517,
          "337": 0.036437353710532604,
          "338": -0.03481208408423912,
          "339": 0.02760571645538762,
          "340": 0.7590235012725087,
          "341": -0.2109320396243687,
          "342": -0.021105636505007193,
          "343": -0.033076298634042205,
          "344": -0.027511595359014103,
          "345": -0.03456243775672948,
          "346": 0.005140773955962405,
          "347": -0.020453492979973894,
          "348": 0.007483430643865563,
          "349": -0.7849509501689058,
          "350": 0.04452662599895691,
          "351": 0.03331560581462698,
          "352": -0.04460196055584,
          "353": -0.4508999350710162,
          "354": -0.0066512978304047584,
          "355": 0.012796428971495855,
          "356": 0.023175643479460648,
          "357": 0.22027310730388014,
          "358": 0.0005725280377670264,
          "359": 0.04322272950265167,
          "360": -0.01727386668804687,
          "361": -0.012256403875238523,
          "362": 0.021063331495057198,
          "363": 0.0403854031244772,
          "364": 0.02524047125193194,
          "365": 0.011955400292592675,
          "366": 0.39757430759291923,
          "367": -0.04460227989951957,
          "368": 0.043380145405113396,
          "369": -0.42964717762366617,
          "370": -0.004336824762078744,
          "371": 0.4706735182878086,
          "372": -0.03579956115197949,
          "373": 0.03190185385173931,
          "374": -0.03902619594199339,
          "375": 0.01892282745896595,
          "376": -0.028588326506992875,
          "377": 0.04316078663645887,
          "378": -0.007889300509744696,
          "379": 0.029052177782722476,
          "380": 0.03825163098250518,
          "381": -0.46965962362854724,
          "382": -0.04338000142911299,
          "383": -0.009245870941919015,
          "384": -0.020125104430685308,
          "385": -0.0031512049790744217,
          "386": -0.46089008932519926,
          "387": -0.0442290374606891,
          "388": 0.043968135359022546,
          "389": 0.03601477714188239,
          "390": -0.04036219127549936,
          "391": 0.013313023171567274,
          "392": -0.027892217150193396,
          "393": 0.14017744966329965,
          "394": -0.00021508481717661567,
          "395": -0.00032776802928467135,
          "396": -0.00004931572793816443,
          "397": -0.018178045532289282,
          "398": 0.03226279914635974,
          "399": -0.02116954025301898
        }
      },
      "b2": {
        "n": 4,
        "d": 1,
        "w": {
          "0": -0.2807796138036236,
          "1": -0.4341364517132477,
          "2": -0.8337816908272335,
          "3": -1.1753968829450563
        }
      }
    }
  }
}
