{
  "arena": "SNAKE",
  "spec": {
    "alpha": 0.02289427583079153,
    "epsilon": 0.05335562412741323,
    "learning_steps_per_iteration": 40,
    "experience_size": 10000,
    "gamma": 0.7962908948627426
  },
  "name": "snake-8x8",
  "result": {
    "step": 1147591,
    "wins": 93400
  },
  "params": {
    "numStates": 6,
    "numActions": 4,
    "maxX": 7,
    "maxY": 7
  },
  "brain": {
    "nh": 100,
    "ns": 4,
    "na": 4,
    "net": {
      "W1": {
        "n": 100,
        "d": 4,
        "w": {
          "0": -0.08266767652977562,
          "1": 0.40236065323074266,
          "2": -0.07873875224272409,
          "3": -0.08076934562587366,
          "4": -0.07911851089263994,
          "5": -0.03953520404024796,
          "6": 0.01794598214041586,
          "7": 0.01063577541562191,
          "8": -0.14145631413745527,
          "9": -0.0027938452345586365,
          "10": 0.002279216312937489,
          "11": -0.05657418645167719,
          "12": 0.06465847459967618,
          "13": 0.023497526685979743,
          "14": -0.01655417606293579,
          "15": 0.00093571577511276,
          "16": 0.47598184027862256,
          "17": -0.9467821933539,
          "18": -0.12342678864343969,
          "19": -0.23686573892407112,
          "20": 0.013583609055069293,
          "21": 0.11844248746662557,
          "22": -0.044000450420781774,
          "23": -0.09845263423378024,
          "24": -0.06679473216940705,
          "25": -0.0210896459453799,
          "26": 0.010803559584269453,
          "27": 0.02638977057270319,
          "28": 0.05369627873848324,
          "29": 0.04924372065403321,
          "30": -0.015771431475847142,
          "31": -0.03842245561059309,
          "32": 0.05040039512047639,
          "33": -0.07819614327477488,
          "34": 0.021675794436088573,
          "35": 0.010854016940961721,
          "36": 0.0488607483897682,
          "37": 0.006886888190130159,
          "38": -0.013343840293812978,
          "39": -0.047390327620633804,
          "40": 1.577171827275282,
          "41": 13.768745918489829,
          "42": -0.08117789062991389,
          "43": 0.11172042242984895,
          "44": -0.048592225266787296,
          "45": -0.02124758951529864,
          "46": 0.02160795509326756,
          "47": 0.06061716225750555,
          "48": -0.05254222047104699,
          "49": -0.04613742728431482,
          "50": 0.013833059172348441,
          "51": 0.028228066922820427,
          "52": -0.01857971336759361,
          "53": 0.01993693167775645,
          "54": 0.004621329031782108,
          "55": -0.016659612129997996,
          "56": -0.0868967788373696,
          "57": 0.1480104864453982,
          "58": 0.05313938797058148,
          "59": 0.08426340547004939,
          "60": -0.038322001036689354,
          "61": -0.05364015421290504,
          "62": 0.01307819964706977,
          "63": 0.03619767090303316,
          "64": -0.1359407703659081,
          "65": 0.00034492526889957925,
          "66": 0.00880638532396251,
          "67": -0.038023386841593884,
          "68": -0.006441596288034855,
          "69": -0.0366381258270285,
          "70": 0.003852873111850684,
          "71": 0.028796150481129084,
          "72": -0.02162335483089521,
          "73": 0.0012884636445864277,
          "74": 0.0059810319388771144,
          "75": -0.004270208971378183,
          "76": -0.06763250974448504,
          "77": -0.02543235763490268,
          "78": 0.017044791342115617,
          "79": 0.000838034292570137,
          "80": 0.02408519543037302,
          "81": 0.02597965712274101,
          "82": -0.015415451540721287,
          "83": -0.05319267996006085,
          "84": -0.007438969566755446,
          "85": 0.1750116014489744,
          "86": -0.053765751396770686,
          "87": -0.03429166715509698,
          "88": 0.12755048888573203,
          "89": 0.0013573577855666421,
          "90": -0.01664427591224763,
          "91": 0.03978154777286026,
          "92": -0.027611726851628608,
          "93": -0.035525530595002616,
          "94": 0.019791852304031472,
          "95": 0.06026088532003575,
          "96": 0.7514377865763993,
          "97": 0.9449877413857976,
          "98": -3.1553106796052157,
          "99": -0.5997970597796501,
          "100": -0.06493916380008585,
          "101": -0.05309589009072239,
          "102": 0.01591148606943941,
          "103": 0.027598510215141224,
          "104": 12.004836570200515,
          "105": -1.8805472727455628,
          "106": -0.803190698255926,
          "107": 0.005180103538502289,
          "108": 2.5636532752230887,
          "109": -0.6926605927271903,
          "110": 1.8530938009791327,
          "111": 1.2183024585139832,
          "112": -0.007778116797791763,
          "113": -0.004034173424857448,
          "114": 0.002153143323787969,
          "115": 0.0002129451350286893,
          "116": -0.059294499811808385,
          "117": -0.024811588835375934,
          "118": 0.015098031102080222,
          "119": 0.004357540725641671,
          "120": 0.010541160471698884,
          "121": 0.03539264785601152,
          "122": -0.004104336498266578,
          "123": -0.024760820641842495,
          "124": 0.004154908966396877,
          "125": -0.2519445961247055,
          "126": 0.0793332403052701,
          "127": 0.06541231341001039,
          "128": 0.08932734769720425,
          "129": 0.03163939760691745,
          "130": -0.016837675612944674,
          "131": -0.010527854367272394,
          "132": 0.03436636232621818,
          "133": -0.011655480189702815,
          "134": -0.008926222826506144,
          "135": 0.015278773241221878,
          "136": 6.5503797460607505,
          "137": 1.8720111747860433,
          "138": 0.3349804151130072,
          "139": -0.4966159309117749,
          "140": 2.961814301320427,
          "141": 2.809679931629998,
          "142": -0.08532984157846939,
          "143": 0.3631889085540582,
          "144": -0.07308457000598485,
          "145": -0.015731292919768013,
          "146": 0.04357492544630406,
          "147": 0.09305692764393796,
          "148": 0.25304727597227933,
          "149": -0.20454793859398157,
          "150": -0.16313892519915008,
          "151": -0.16588594652956853,
          "152": -0.11019110345499446,
          "153": -0.025227654770751534,
          "154": 0.014723313123364922,
          "155": -0.0014834675137869182,
          "156": 0.13360313300945673,
          "157": 0.018942289528851356,
          "158": -0.0161054217655366,
          "159": 0.026920822961652033,
          "160": 2.029270819067641,
          "161": -1.3755783314413734,
          "162": 0.07053694760572364,
          "163": -0.0786723573035787,
          "164": 0.22191478859375646,
          "165": -2.210154716005981,
          "166": 0.017761892521987614,
          "167": 1.1541917980471306,
          "168": 0.004516494224714941,
          "169": -0.04438559739280777,
          "170": 0.023313932259393762,
          "171": 0.07788495603541955,
          "172": -0.11536681913842008,
          "173": -0.01824909724366451,
          "174": 0.022313318117020288,
          "175": -0.016845803979170598,
          "176": -0.1298304759122718,
          "177": -0.014408328296933389,
          "178": 0.015158036785537524,
          "179": -0.02259219712151838,
          "180": -0.023271285319162147,
          "181": -0.06637335001675634,
          "182": 0.019201008123093454,
          "183": 0.058321276120879444,
          "184": 0.058904690782155704,
          "185": -0.039528610649134814,
          "186": 0.005864964360178309,
          "187": -0.00635724360850272,
          "188": 0.02937171223678231,
          "189": -0.12527982650997044,
          "190": 0.0386495929028066,
          "191": 0.0238465047636864,
          "192": -0.027646309714954628,
          "193": 0.033092585297251585,
          "194": -0.0105948360546996,
          "195": -0.06451125753420416,
          "196": -2.0311529384914206,
          "197": -3.352484694604989,
          "198": -0.31362876207623674,
          "199": 1.5232221706645053,
          "200": 0.10626753137808036,
          "201": 0.009952100976488139,
          "202": -0.0667049008104913,
          "203": -0.12709204381384812,
          "204": 0.05972830679448534,
          "205": 0.0322591044477624,
          "206": -0.013483630558629955,
          "207": -0.034065340427128644,
          "208": -0.0877555713237111,
          "209": -0.06146455076387612,
          "210": 0.06316299379776245,
          "211": 0.11673625506875861,
          "212": -2.8809890251889603,
          "213": -8.924089399408867,
          "214": 0.2551110843756287,
          "215": 0.7671202289772779,
          "216": -0.023756540368313643,
          "217": -0.010918028620108726,
          "218": 0.0064138266082561565,
          "219": 0.004151365300080847,
          "220": -0.03052652041451545,
          "221": 0.047662772427384974,
          "222": -0.019091495797773434,
          "223": -0.08037304739216714,
          "224": 0.06513187576102299,
          "225": 0.009029940391528003,
          "226": -0.006527597751961925,
          "227": -0.026460898624198773,
          "228": -13.839074437376837,
          "229": -3.9992548335585605,
          "230": -0.3203047916152125,
          "231": 0.0672735140067786,
          "232": -0.043797276016426905,
          "233": 0.04785878196392532,
          "234": 0.0013334192111496392,
          "235": -0.048217211444810885,
          "236": 0.06981525380573508,
          "237": 0.04093113868219967,
          "238": -0.03752176042591658,
          "239": -0.0817254881899451,
          "240": -0.05147822918099117,
          "241": -0.020482176802341167,
          "242": 0.013424257951388708,
          "243": 0.0029906161390801387,
          "244": -0.13545134865311617,
          "245": 0.002330526713954854,
          "246": 0.007722697094953991,
          "247": -0.055112251024603716,
          "248": 0.09119260570512909,
          "249": 0.0027286145259264832,
          "250": -0.005264596834572316,
          "251": -0.0030154047682201964,
          "252": 0.09507180704457288,
          "253": 0.04762558585365816,
          "254": -0.020454304169654967,
          "255": -0.0050190339102575325,
          "256": 0.08077008941190844,
          "257": 0.012338365348913754,
          "258": -0.006815782485175812,
          "259": -0.014593413706301446,
          "260": 0.12033725352207901,
          "261": -0.019674019894752637,
          "262": -0.000034601831774548634,
          "263": 0.03078343120182423,
          "264": -2.32214742692069,
          "265": 2.3642227714030306,
          "266": 1.282887615957635,
          "267": -0.3637008562280941,
          "268": -0.10530906556910034,
          "269": -0.15633309946439533,
          "270": 0.10572970783492652,
          "271": 0.1935116574601842,
          "272": -0.03658724778540407,
          "273": 0.2943012122216502,
          "274": -0.11298293965787835,
          "275": -0.10846564720571025,
          "276": 0.16471996279646764,
          "277": -0.32371534917777695,
          "278": -0.10522677266241572,
          "279": 0.2671161090749514,
          "280": -0.007700251977264348,
          "281": -0.022073053132043465,
          "282": 0.002220210435191791,
          "283": 0.014224649199788194,
          "284": 1.1815125473846286,
          "285": 13.215799431690765,
          "286": -0.037731885447674,
          "287": 0.20824472345166847,
          "288": -0.1014873442218931,
          "289": -0.027119930362615063,
          "290": 0.014980418271018106,
          "291": 0.004651912174949633,
          "292": -2.2198719596973753,
          "293": -1.9080480612644568,
          "294": -1.221817402389417,
          "295": -0.29370088421478757,
          "296": -0.0066935527236173745,
          "297": -0.09469089439486694,
          "298": 0.027123960960956962,
          "299": 0.07648675909510051,
          "300": 0.13720345298130093,
          "301": 0.009834526630439303,
          "302": -0.008675231512189713,
          "303": 0.03499709848872654,
          "304": 0.023997031402726653,
          "305": -0.14015572399773815,
          "306": 0.04204038686386988,
          "307": 0.027236224546702475,
          "308": -0.048460910674502956,
          "309": 0.3664954860836303,
          "310": -0.07624475518969363,
          "311": -0.07100294824303778,
          "312": -0.1398188215299964,
          "313": 0.0039142530992286135,
          "314": -0.0019204207814997865,
          "315": -0.06678237839993982,
          "316": 0.011162226348405952,
          "317": 0.07356304139620613,
          "318": -0.01678745395995229,
          "319": -0.0580851092574122,
          "320": 0.10520432967517483,
          "321": 0.032794112331072545,
          "322": -0.02152847367244148,
          "323": 0.003558106122998789,
          "324": -7.379973218782228,
          "325": -0.8443256680690713,
          "326": 0.6336696220055593,
          "327": 0.8049158241525188,
          "328": -0.06234784204503966,
          "329": -0.0021474154965700995,
          "330": 0.041098828467401094,
          "331": 0.09095401149966713,
          "332": 0.031983619974073535,
          "333": -0.2343145376024091,
          "334": -0.009929914995833443,
          "335": -0.030677551514505238,
          "336": -0.1185008849794372,
          "337": -0.002427314903732779,
          "338": 0.018924162455679825,
          "339": -0.03563808109789493,
          "340": 0.002578380925817246,
          "341": -0.028784210386806463,
          "342": 0.00019243762704075076,
          "343": 0.02117543706364386,
          "344": 1.7879585265077198,
          "345": -4.717166796112147,
          "346": -0.008953546252782411,
          "347": 0.7707508014166736,
          "348": 0.0026287699057258238,
          "349": -0.28240319175878015,
          "350": 0.07042830706161926,
          "351": 0.05601653600684322,
          "352": -0.01832847490921428,
          "353": 0.2873878318835697,
          "354": -0.09670861100623,
          "355": -0.0863883134997024,
          "356": 0.078668281511627,
          "357": 0.03424662612972724,
          "358": -0.015232627032101998,
          "359": -0.0178922270223394,
          "360": 0.05165951215078908,
          "361": -0.24072831222499805,
          "362": 0.11280390838996764,
          "363": 0.12048456578735423,
          "364": 0.05163781985648183,
          "365": 0.0069728961585923165,
          "366": -0.013671455231804906,
          "367": 0.006926627430594476,
          "368": -0.10136672772732513,
          "369": -0.0076113665754372044,
          "370": 0.022088817626810704,
          "371": -0.01588165431755238,
          "372": -4.187040263662794,
          "373": 0.8807872603690331,
          "374": -0.5884570502499852,
          "375": -1.5459912123540889,
          "376": -0.1316918338845854,
          "377": 0.04507356771350843,
          "378": -0.02824197828134058,
          "379": -0.11528916124182675,
          "380": 0.025705635830162978,
          "381": -0.12559467831523424,
          "382": 0.00043153085125310865,
          "383": -0.03774969674338535,
          "384": -0.04742122919373832,
          "385": 0.0613015679696113,
          "386": -0.013941254093088704,
          "387": 0.0031549634853351455,
          "388": -0.04234313187882029,
          "389": -0.031351144284934775,
          "390": 0.010948060974086165,
          "391": 0.01413080529335865,
          "392": 0.0732360816311895,
          "393": 0.02946353373808206,
          "394": -0.01594836598580042,
          "395": -0.013917965090079124,
          "396": -0.0708870530292369,
          "397": -0.01327910281021915,
          "398": 0.017986586613961946,
          "399": -0.006482513561065234
        }
      },
      "b1": {
        "n": 100,
        "d": 1,
        "w": {
          "0": 0.04161514864226273,
          "1": -0.007768787966477396,
          "2": 0.01618240337615627,
          "3": 0.0039727150057205785,
          "4": -0.010238209067986122,
          "5": 0.03913591402560387,
          "6": -0.010282786456806237,
          "7": 0.014984680719652057,
          "8": -0.008654888510323375,
          "9": 0.01687307840708915,
          "10": -0.34494301737177746,
          "11": -0.02280052297644568,
          "12": -0.011566407422870753,
          "13": 0.003533545788432108,
          "14": -0.038284084050306755,
          "15": -0.013574502287691997,
          "16": 0.008821692658790587,
          "17": -0.009076568149658014,
          "18": -0.0002932557698603051,
          "19": -0.004623269305118083,
          "20": 0.01903241016798315,
          "21": 0.023377525061245533,
          "22": -0.00726692136616446,
          "23": -0.022167047046740856,
          "24": 0.06283935914664435,
          "25": -0.01201723216349181,
          "26": 0.5162682790929881,
          "27": -0.18924643956813744,
          "28": -0.0005908423414401102,
          "29": -0.005096636045245111,
          "30": 0.007992686518762145,
          "31": -0.03889431231021239,
          "32": 0.007492655459462579,
          "33": -0.0020865917805796253,
          "34": 0.15658958838708587,
          "35": -0.2589730386271309,
          "36": -0.038058197407146645,
          "37": 0.09575960888196583,
          "38": -0.003578024304547253,
          "39": -0.0034240958248096943,
          "40": -0.4687240615012729,
          "41": -0.2091253801635085,
          "42": -0.028123583057935612,
          "43": -0.0011044231462256646,
          "44": 0.0024424661528106343,
          "45": -0.021391257033300616,
          "46": 0.0002225837403809982,
          "47": -0.016523582520689497,
          "48": 0.021147695102801976,
          "49": 0.38015177451060683,
          "50": 0.05468401746508053,
          "51": 0.013158168392346428,
          "52": -0.05064346531859026,
          "53": -2.112151869741749,
          "54": -0.00277266139675297,
          "55": 0.0278581861910826,
          "56": 0.00915893697766347,
          "57": 0.5629904817039382,
          "58": 0.01341499924061867,
          "59": 0.03320159298943238,
          "60": -0.004251232412247881,
          "61": 0.014286458761435666,
          "62": 0.002174903831666577,
          "63": 0.006982094769600414,
          "64": 0.005897083644312559,
          "65": -0.009078668752815454,
          "66": -1.4261222775423055,
          "67": -0.08611254499322511,
          "68": 0.059112507607182854,
          "69": -0.05530560835544093,
          "70": -0.004546817950710046,
          "71": 0.6253574377334481,
          "72": -0.00537139895493118,
          "73": 0.9379068285742203,
          "74": -0.02850295661961915,
          "75": -0.007888746192543363,
          "76": -0.01832029843298165,
          "77": 0.03853591997412368,
          "78": 0.020448030758892437,
          "79": 0.020653651811166376,
          "80": 0.00479578155145928,
          "81": -1.625697371219108,
          "82": -0.03672519372775534,
          "83": 0.012221363296848947,
          "84": 0.005437983985616577,
          "85": -0.005999846120721792,
          "86": 0.22804120497524957,
          "87": -0.033836680546077094,
          "88": 0.04901780740615266,
          "89": 0.009115314302593568,
          "90": -0.0627531643166,
          "91": 0.0014837173264952376,
          "92": -0.0011983799510275465,
          "93": 1.3476721133417038,
          "94": 0.04218926321650098,
          "95": 0.011010125053590137,
          "96": 0.0027011344056004014,
          "97": -0.00676460172296368,
          "98": 0.008122863234701521,
          "99": -0.0027602363104489206
        }
      },
      "W2": {
        "n": 4,
        "d": 100,
        "w": {
          "0": 0.010830417308705091,
          "1": -0.06468593505975351,
          "2": -0.11337292994549089,
          "3": 0.0556964256557582,
          "4": 0.32512432411684816,
          "5": 0.020070951119741415,
          "6": -0.04377251000224383,
          "7": 0.03902760046578967,
          "8": 0.010080752014872818,
          "9": 0.023633951428653488,
          "10": 0.4716628449611504,
          "11": -0.02605700408572895,
          "12": -0.040229568176457106,
          "13": -0.016747132091991492,
          "14": -0.032715098361843255,
          "15": -0.02919945547581676,
          "16": -0.10621148809612233,
          "17": -0.0029683695355019984,
          "18": -0.018572083822858104,
          "19": -0.05762582442625495,
          "20": 0.010289631416509003,
          "21": 0.0434660677220978,
          "22": 0.10608082771568556,
          "23": -0.014267907821416457,
          "24": 0.09121339797517507,
          "25": -0.050877907408284254,
          "26": 0.01484143235486671,
          "27": 0.10162200249034742,
          "28": -0.006896962328050293,
          "29": -0.049794467061979875,
          "30": 0.0069407203477205755,
          "31": -0.05914786078233331,
          "32": 0.0692405698561471,
          "33": 0.03039650891239239,
          "34": -0.19835361736186588,
          "35": 0.0889409219025106,
          "36": -0.041701507611646045,
          "37": 0.18068507301011713,
          "38": -0.08460340477339816,
          "39": 0.10842314286817016,
          "40": -0.8756591392598674,
          "41": -0.0781533569268827,
          "42": 0.009077045849690804,
          "43": -0.09637869233222021,
          "44": -0.10305958234677055,
          "45": -0.01744282813249677,
          "46": 0.025308350803570013,
          "47": -0.01655843404829336,
          "48": -0.028464365567622704,
          "49": 0.14561221280138478,
          "50": 0.06307110032298169,
          "51": 0.04006221832459163,
          "52": -0.06190178483437418,
          "53": -0.009803934703298392,
          "54": -0.019490865885024675,
          "55": -0.02850563521951206,
          "56": 0.03806031535453846,
          "57": -0.15787812521999378,
          "58": -0.03711732315687979,
          "59": 0.04473908834837684,
          "60": -0.04349077960848667,
          "61": -0.11099536233816518,
          "62": 0.061280070773759146,
          "63": 0.07987094880966537,
          "64": 0.053100409981617,
          "65": 0.08503177787537841,
          "66": -0.26772665782702637,
          "67": -0.08457770177157896,
          "68": 0.04594060016885985,
          "69": 0.18111832786909224,
          "70": -0.005298110851255084,
          "71": 0.025168310487652938,
          "72": -0.07729630405166796,
          "73": 0.5093160216289054,
          "74": -0.009853200228939653,
          "75": 0.1077830365841428,
          "76": -0.023195003681631812,
          "77": 0.034385984718434626,
          "78": -0.11236220126209114,
          "79": 0.009673978044708612,
          "80": 0.0873403982529882,
          "81": -0.3070937381309862,
          "82": -0.03171872764617689,
          "83": -0.021092342233973542,
          "84": -0.10021451664606791,
          "85": 0.0036740053126270004,
          "86": 0.3009769824538431,
          "87": -0.061354029931418856,
          "88": 0.055811811728949764,
          "89": 0.05933362576788885,
          "90": -0.02635973324094512,
          "91": 0.044724334397905824,
          "92": -0.08487622759897637,
          "93": 0.07963627193739456,
          "94": -0.10219928605131387,
          "95": -0.01878541767817085,
          "96": -0.010579724152357514,
          "97": -0.034287635107887446,
          "98": 0.056759476914844544,
          "99": -0.060593748174089475,
          "100": 0.04378729322260841,
          "101": -0.031853001556631656,
          "102": 0.003666690259805756,
          "103": 0.01574633235090691,
          "104": 0.20785803734361447,
          "105": 0.08546722097348569,
          "106": -0.042744512506392066,
          "107": 0.04992579317844198,
          "108": 0.008063417340644582,
          "109": 0.052885846778806554,
          "110": 0.028769648592877818,
          "111": -0.06254387006111656,
          "112": -0.0409952204463052,
          "113": 0.012634329073088492,
          "114": -0.06655835381107389,
          "115": -0.04446896494198746,
          "116": -0.007884442224787286,
          "117": -0.02963796050632332,
          "118": -0.0006172252591057342,
          "119": -0.018295046258023105,
          "120": 0.0510654064260266,
          "121": 0.022641801008124397,
          "122": 0.000280475295818837,
          "123": -0.05762694716413125,
          "124": -0.13199993247682712,
          "125": -0.044385353508046725,
          "126": 0.009358714571226518,
          "127": 0.261529137727145,
          "128": -0.0022156104327440886,
          "129": -0.019398880694252423,
          "130": 0.027162637626155683,
          "131": -0.047747345415045044,
          "132": 0.034829930725650014,
          "133": -0.007248037152145779,
          "134": -0.02595317321691654,
          "135": -0.3624303128723174,
          "136": -0.08950878278819081,
          "137": 0.14283466044249604,
          "138": -0.03147077619755823,
          "139": 0.015792848977595406,
          "140": -0.06869884386018624,
          "141": -1.0261518758907826,
          "142": -0.06220165836511389,
          "143": -0.015800060224950594,
          "144": -0.01826851563649553,
          "145": -0.057933744989245035,
          "146": 0.02324498715347731,
          "147": -0.0077581158555007695,
          "148": 0.047042246086696084,
          "149": 0.2707215886805425,
          "150": 0.12022475341034478,
          "151": 0.047245316302314294,
          "152": -0.11239679371157349,
          "153": -0.21871198056125826,
          "154": -0.00980061699386239,
          "155": 0.05803437758331681,
          "156": 0.04277847753787548,
          "157": 0.06573517662961487,
          "158": 0.03383182893139259,
          "159": 0.08370077756616603,
          "160": -0.015873457108591307,
          "161": 0.007234912484609931,
          "162": 0.03062584844231421,
          "163": 0.03201957122446578,
          "164": 0.037698512586178526,
          "165": 0.010634590301577958,
          "166": -0.22225114056109282,
          "167": -0.1803501880590734,
          "168": 0.06405744308536274,
          "169": -0.2840276225815525,
          "170": -0.016360801126547114,
          "171": -0.37245118114549775,
          "172": -0.03402916786974925,
          "173": -0.11687440001066564,
          "174": -0.06824024223945852,
          "175": 0.012049529482995635,
          "176": -0.012510344997005183,
          "177": 0.04639247780740556,
          "178": 0.012200599143193871,
          "179": 0.05550908372448578,
          "180": 0.025910797132544423,
          "181": -0.1915013199389187,
          "182": -0.08369243215319992,
          "183": 0.012926467496638033,
          "184": 0.00001752094825643424,
          "185": -0.020699528729742386,
          "186": 0.3952447270967516,
          "187": -0.04574308600718902,
          "188": 0.05722238068186815,
          "189": 0.03870327797897576,
          "190": -0.0650076347995112,
          "191": 0.005685199515249653,
          "192": -0.010891452005291857,
          "193": 0.2292574978883174,
          "194": 0.050637392428116865,
          "195": 0.029943133752310586,
          "196": -0.01787026845862155,
          "197": -0.02485860732324557,
          "198": 0.032599224147979076,
          "199": -0.011273835271849825,
          "200": 0.06388977196013539,
          "201": 0.010341573375215102,
          "202": 0.017423482967839684,
          "203": -0.007541268752520049,
          "204": -0.2976504691744467,
          "205": 0.0006660996813158196,
          "206": 0.013359158589029172,
          "207": -0.009152723489330317,
          "208": -0.01913509186762066,
          "209": -0.014375925690633359,
          "210": -0.646004372895967,
          "211": 0.013812174295122189,
          "212": 0.007889090264416065,
          "213": 0.002363089777519691,
          "214": 0.03917534362348879,
          "215": 0.005724415020276227,
          "216": 0.018802614265471328,
          "217": 0.0014459870229234627,
          "218": 0.002778295585019531,
          "219": 0.008131525313077015,
          "220": -0.008239370521693925,
          "221": 0.022177876561017166,
          "222": -0.015643944371615436,
          "223": 0.00843693284134482,
          "224": -0.23747094576903802,
          "225": 0.009187307477448977,
          "226": 0.5486397087031671,
          "227": 0.4022944804876392,
          "228": 0.0008067861478148467,
          "229": 0.007419775106045237,
          "230": -0.001689569489840799,
          "231": -0.029403627038775887,
          "232": -0.01326722222494454,
          "233": -0.004147408607376857,
          "234": -0.4826291509040134,
          "235": -0.00578721451914425,
          "236": 0.02138926569221139,
          "237": -0.08283410086595573,
          "238": 0.016303678621776507,
          "239": -0.017137103708187662,
          "240": -0.3883135750607897,
          "241": -0.4026415067229055,
          "242": 0.0035371895959508282,
          "243": 0.014503703195718127,
          "244": 0.017722384713039677,
          "245": 0.0041208293987723835,
          "246": -0.017222893938319862,
          "247": -0.020481977080879735,
          "248": 0.000028692762940626388,
          "249": 0.27079769214264,
          "250": -0.03106310748518127,
          "251": -0.01170037532374886,
          "252": 0.020709565396939498,
          "253": -0.019066758891729603,
          "254": 0.0031928444854048546,
          "255": 0.0008711518454863285,
          "256": -0.01487389537584963,
          "257": -0.7228909456336172,
          "258": 0.0055989400647085364,
          "259": -0.01712609092124573,
          "260": 0.006375128959445572,
          "261": 0.016295706228780578,
          "262": -0.01696791133066614,
          "263": -0.011346606084380028,
          "264": -0.015609048351385369,
          "265": -0.020222039756219695,
          "266": -0.31606184525293973,
          "267": 0.02009343963546417,
          "268": 0.04062520141634914,
          "269": -0.00951220731651634,
          "270": 0.0011239286569438816,
          "271": 0.6886483330313858,
          "272": 0.015385521205408228,
          "273": 0.15015594009113717,
          "274": -0.0004202886402738976,
          "275": -0.01847921995388571,
          "276": -0.0210162457605278,
          "277": 0.052397595854695306,
          "278": 0.01677850937428866,
          "279": -0.001297079150093772,
          "280": -0.013305182193716786,
          "281": -0.020257131967080032,
          "282": 0.020689339768524693,
          "283": -0.03551973704364542,
          "284": 0.01415425641452955,
          "285": -0.00016800422934429597,
          "286": 0.3695301492049111,
          "287": -0.03297152421185311,
          "288": 0.036310620049491565,
          "289": -0.012335914673292528,
          "290": -0.03548699658859263,
          "291": -0.006193745463674467,
          "292": 0.013101295885369114,
          "293": 0.3264143752789104,
          "294": 0.0160906112569955,
          "295": -0.024345288268319172,
          "296": 0.017910977993565617,
          "297": 0.005602160414956617,
          "298": -0.0110462961339371,
          "299": 0.008718009481683029,
          "300": 0.0629961400895517,
          "301": -0.003017380839360712,
          "302": 0.03696815092195433,
          "303": -0.00020386545635089643,
          "304": 0.008384820457822226,
          "305": 0.05475819629542617,
          "306": -0.007996421535905967,
          "307": 0.015544559790822123,
          "308": -0.017153025676868397,
          "309": 0.02019622616180357,
          "310": -0.4975404202090884,
          "311": -0.02901672327347008,
          "312": -0.0107243124488769,
          "313": 0.005737342142158546,
          "314": -0.05501871642152639,
          "315": -0.014795280620564108,
          "316": 0.025649752697377196,
          "317": -0.011412430327313575,
          "318": 0.0011067853202759435,
          "319": -0.00036185198349476594,
          "320": 0.025419698301002814,
          "321": 0.03362113572100837,
          "322": -0.021814843578043946,
          "323": -0.029643799913580147,
          "324": -0.22037940102466114,
          "325": -0.00988851449414105,
          "326": -0.5429330982593056,
          "327": 0.3408635783659232,
          "328": -0.00013800476995598127,
          "329": -0.0017636075706332272,
          "330": 0.009511918491530597,
          "331": -0.05465677209864895,
          "332": 0.0016653546162215642,
          "333": -0.005113324648803339,
          "334": -0.8199713068343762,
          "335": -0.5927695166251398,
          "336": -0.050463837042034734,
          "337": 0.11891519034804934,
          "338": 0.00618176821386349,
          "339": -0.0181022005364185,
          "340": -0.48810390647466695,
          "341": 0.07126482606543223,
          "342": -0.04153780350808569,
          "343": 0.009100661524322883,
          "344": 0.016235220270833912,
          "345": -0.027779099982320744,
          "346": -0.00498117899087396,
          "347": -0.02647221424149648,
          "348": 0.0328988839316324,
          "349": -0.10826157888091163,
          "350": 0.07233913255664855,
          "351": 0.012710971651432078,
          "352": -0.06623714726180677,
          "353": -0.3320519029441419,
          "354": -0.0018174540608178857,
          "355": 0.043141900765930885,
          "356": 0.0066156474483428165,
          "357": -0.09990473323827606,
          "358": 0.021710034320863245,
          "359": 0.04226078695388251,
          "360": -0.0014009628643697925,
          "361": 0.03298743293254598,
          "362": -0.006029655236131296,
          "363": -0.00004445555814500204,
          "364": 0.0001547913033279406,
          "365": -0.024523058009443592,
          "366": -0.4503630046264244,
          "367": -0.11217760676770809,
          "368": 0.08899150115249892,
          "369": -0.06078106854011102,
          "370": -0.00515883574682926,
          "371": 0.5315378903916163,
          "372": 0.0027203802702946813,
          "373": -0.3509432011039654,
          "374": -0.039516810976746364,
          "375": -0.024968643190903902,
          "376": -0.028308191204337637,
          "377": 0.055614864039195654,
          "378": 0.0426983917003702,
          "379": 0.02750894959570321,
          "380": -0.003529290122092053,
          "381": -0.7657640794054067,
          "382": -0.050061730436774615,
          "383": 0.021478884750918477,
          "384": 0.018117401968637165,
          "385": -0.007832256441762924,
          "386": 0.08048019540733427,
          "387": -0.04537086833514599,
          "388": 0.0710734795854584,
          "389": 0.004910686506969287,
          "390": -0.09781744918531919,
          "391": -0.0020035556658994885,
          "392": 0.006938302264312998,
          "393": -0.18260834678304685,
          "394": 0.07254664541637551,
          "395": 0.016911313583067362,
          "396": 0.008102953966998977,
          "397": -0.005278819951192571,
          "398": 0.004396515206015621,
          "399": 0.0020434076542247825
        }
      },
      "b2": {
        "n": 4,
        "d": 1,
        "w": {
          "0": -0.33975726258610844,
          "1": -0.25405811173412596,
          "2": -0.724445548935561,
          "3": -0.7036869127800814
        }
      }
    }
  }
}
